date,AUD,CAD,CHF,EUR,GBP,JPY,NOK,NZD,SEK
2007-01-31,,,,,,,,,
2007-02-28,,,,,,,,,
2007-03-31,,,,,,,,,
2007-04-30,,,,,,,,,
2007-05-31,0.386799447709124,0.0,-0.4455156695988863,0.0,0.4553037588540642,-0.29747711151135453,0.0,0.29614214513237774,-0.3952525705853251
2007-06-30,0.5128338587151756,0.0,-0.5835663894598925,0.0,0.6409217017150709,-0.5155250002725735,0.0,0.4485203609955568,-0.5031845316933372
2007-07-31,0.6093913125083052,0.0,-0.6018485955179501,0.0,0.7287952569940634,-0.728785734591471,0.0,0.48376425690134417,-0.4913164962942916
2007-08-31,0.43307227066753895,0.0,-0.435667422776009,0.0,0.503114374327523,-0.43671459028710374,0.0,0.3215630220656884,-0.3853676539976376
2007-09-30,0.26763324048528997,0.0,-0.3233557930996818,0.0,0.3233723223057702,-0.22268036160987834,0.0,0.2173815468042593,-0.2623509548857593
2007-10-31,0.24904664309653787,0.0,-0.29830779845364375,0.0,0.29831979398309766,-0.19468672257820593,0.0,0.19840052515911213,-0.25277244120689807
2007-11-30,0.26223175800793197,0.0,-0.2952730036496217,-0.31219873623701666,0.3170737231209929,-0.18517545638203498,0.0,0.2133417151397485,0.0
2007-12-31,0.23124454749127304,0.0,-0.27492733134979075,-0.3054881374069963,0.30654138172361206,-0.18591326983291956,0.0,0.2285428093748214,0.0
2008-01-31,0.23259705554137172,0.0,-0.2783510876988311,-0.29386790829076187,0.30912288739141414,-0.2005699407025414,0.0,0.2310689937593485,0.0
2008-02-29,0.2490368307880519,-0.2335555545293377,-0.3125021782701374,0.0,0.0,-0.2419329487788398,0.2935015405778395,0.24545231021242342,0.0
2008-03-31,0.3860654802585866,-0.346107312976766,-0.383747614410976,0.0,0.0,-0.37605936340342055,0.37732394967407434,0.3425248608585016,0.0
2008-04-30,0.29094527233690914,-0.31620222902131545,-0.2817486964081614,0.0,0.0,-0.27527475628906095,0.3029340020893293,0.2793464072922994,0.0
2008-05-31,0.28364870655287827,-0.33666314131221536,-0.25655926933488926,0.0,0.0,-0.2623432533854824,0.2756573703993227,0.2962595870803861,0.0
2008-06-30,0.32026023485931365,-0.3736217275404705,-0.27194548245206956,0.0,0.0,-0.28848500841120595,0.29301943312263456,0.3207725504217977,0.0
2008-07-31,0.5300783236095449,-0.559427110225387,-0.38871539152164164,0.0,0.0,-0.5073799497087114,0.4165166168450129,0.5089275110011824,0.0
2008-08-31,0.6575365047109109,-0.7283896255692043,-0.49638270652350763,0.0,0.0,-0.5961906702914948,0.539134659602683,0.6242918380706128,0.0
2008-09-30,0.5832921608536648,-0.6500579389611911,-0.5015162208841277,0.0,0.0,-0.5449505874166751,0.5299275403653413,0.5833050460429878,0.0
2008-10-31,0.23343064859378448,0.0,-0.2600176087980396,-0.2848368082667421,0.0,-0.24223782737927152,0.27179972113734646,0.28186187471292223,0.0
2008-11-30,0.08111093367439157,-0.10580337744049637,-0.13359710123438825,0.0,0.0,-0.09459105774422728,0.1335972897405588,0.11928331300416155,0.0
2008-12-31,0.07550037402493469,-0.0915818477769915,-0.12330116087435603,0.0,0.0,-0.09336752988456713,0.12330058064231525,0.10944958386866474,0.0
2009-01-31,0.08975704810335623,0.0,-0.1356178883610734,0.0,0.0,-0.11399007452562099,0.12976014918848292,0.11952725296187593,-0.08943648736702073
2009-02-28,0.16644884158237103,-0.1626329821045132,-0.16824181588370102,0.0,0.0,-0.1822894377082238,0.1748713754919796,0.17184401862208754,0.0
2009-03-31,0.18877298875948254,-0.18855737706384704,-0.168658736501935,0.0,0.0,-0.20673779652816082,0.1873355651199616,0.1878453562144986,0.0
2009-04-30,0.18172702289133985,-0.1701816609016385,-0.18429117664168548,0.0,0.0,-0.1838919797758872,0.17968653902098258,0.1769512554068887,0.0
2009-05-31,0.19091355699900447,-0.18775045708567206,-0.19103924887047063,0.0,0.0,-0.19471528192353185,0.19444872289401827,0.1881427079866519,0.0
2009-06-30,0.22169702713377906,-0.2162745535530158,-0.2021187189321105,0.0,0.0,-0.22290117552111816,0.21780740181341932,0.20179001905904606,0.0
2009-07-31,0.2191489683019191,-0.2048687266185641,-0.2183494174035372,0.0,0.0,-0.25065363784663713,0.25150699229013124,0.203215821276688,0.0
2009-08-31,0.266241780618667,0.0,-0.29311896895498085,0.0,0.0,-0.3045869450911323,0.28006334215803547,0.2409266889927568,-0.1895258977233462
2009-09-30,0.30954928963411943,0.0,-0.3237331723775139,0.0,0.0,-0.36171427360184705,0.30435081049632434,0.30737132483947643,-0.23582397899055918
2009-10-31,0.4010823166665497,0.0,-0.4633480278047268,0.0,0.0,-0.43303011591693535,0.38647176228763275,0.40147302894653536,-0.2926489641790558
2009-11-30,0.3161889332412789,0.0,-0.37941590643253825,0.0,0.0,-0.33482565724496094,0.34390876390371333,0.28843513524119474,-0.23429126870868783
2009-12-31,0.34133336953446436,0.0,-0.3912399723082708,0.0,0.0,-0.34318252727511855,0.35999505950147814,0.28167314389857007,-0.24857907335112317
2010-01-31,0.35146424793290315,0.0,-0.3912697425419203,0.0,0.0,-0.3174242365189874,0.3478123151973069,0.2788959895936864,-0.2694785736629886
2010-02-28,0.41105237959866875,0.0,-0.4654805023444255,0.0,0.0,-0.3780549382491793,0.41265427672425087,0.35167031679501487,-0.3318415325243299
2010-03-31,0.39403779392296245,0.0,-0.4783798737884341,0.0,0.0,-0.3879140917350481,0.4348545813888902,0.3670551551504649,-0.32965356493883535
2010-04-30,0.4144265779595373,0.0,-0.4535216166637035,0.0,0.0,-0.40474761390831215,0.4162300056021647,0.389159669433412,-0.3615470224230985
2010-05-31,0.4930178351704856,0.0,-0.4797564276576048,0.0,0.0,-0.49986690318918653,0.4845471117692473,0.4500332692598015,-0.44797488535274294
2010-06-30,0.2429791050989219,0.0,-0.31066951229710593,-0.24432870639076032,0.0,-0.2467616695887386,0.28267561262015306,0.2761051705575298,0.0
2010-07-31,0.19007734996300887,0.0,-0.24822310747456763,-0.19640959879343672,0.0,-0.20763271156581825,0.25056269782652896,0.2116253700442849,0.0
2010-08-31,0.18559238163572614,0.0,-0.22346893087955774,-0.1839079427591187,0.0,-0.22818023999836293,0.24818774729500812,0.20177698470630512,0.0
2010-09-30,0.26099847944985194,0.0,-0.2460617080857105,-0.2410157217924992,0.0,-0.3041206148511361,0.2758431101678494,0.2543564551116445,0.0
2010-10-31,0.3070007042051391,0.0,-0.2622217811990732,0.0,-0.3311510784177941,-0.26644961408738704,0.2560962813633787,0.2967254881357367,0.0
2010-11-30,0.3565630446143711,0.0,-0.3026135654409107,0.0,-0.3888584753095303,-0.3212982188745575,0.2930136772170422,0.3631935377935853,0.0
2010-12-31,0.45171320365665923,0.0,-0.4284620209204931,-0.3676208379722328,0.0,-0.492656809312492,0.400908975338888,0.4361174892096708,0.0
2011-01-31,0.4880707652393164,0.0,-0.4298105506364101,-0.41245594384851336,0.0,-0.5615166013419154,0.4618297519923632,0.45388257859515957,0.0
2011-02-28,0.5524825305066027,0.0,-0.4676396932762476,0.0,-0.5512183656101202,-0.5915070654071387,0.5456708515895681,0.512211742197336,0.0
2011-03-31,0.6324355855886067,0.0,-0.4876328607032527,0.0,-0.6357419933214132,-0.6407577238874841,0.6207192169806,0.5109777753429434,0.0
2011-04-30,0.3491586495955875,0.0,-0.3103428543750093,0.0,-0.39818570679390997,-0.31545885646046884,0.3536502565125285,0.3211785115212721,0.0
2011-05-31,0.33417294743227705,0.0,-0.2923908385094749,0.0,-0.37621821846382075,-0.27193472557958326,0.301687931338753,0.3046829037818489,0.0
2011-06-30,0.3011595143488143,0.0,-0.2597273631340504,0.0,-0.3458295925185183,-0.25901603759529174,0.25743982903761814,0.305973649861428,0.0
2011-07-31,0.3917384068706115,0.0,-0.27029615879093566,0.0,-0.3787750625613697,-0.40037867344577294,0.2835402592572404,0.37417122867022634,0.0
2011-08-31,0.3936954710820628,0.0,-0.24908785078917328,0.0,-0.36118794156133516,-0.3997679388788589,0.2793019038900846,0.33704635625721985,0.0
2011-09-30,0.2584389823990875,0.0,-0.14122580114184635,0.0,-0.28678252342165705,-0.28678252342165705,0.24477779122033438,0.21157407436573855,0.0
2011-10-31,0.22864698936769856,0.0,-0.1257343132746622,-0.25949474512203546,0.0,-0.25949474512203546,0.0,0.20447937886412615,0.21159743528690847
2011-11-30,0.2508282861459528,0.0,-0.14643936020904091,0.0,-0.30752428347769073,-0.30752428347769073,0.0,0.24833784259450697,0.26232179842396247
2011-12-31,0.25410320571805534,0.0,-0.23838019322891488,-0.2588945316287666,0.0,-0.3315224197469415,0.0,0.26674593293771315,0.3079480059488546
2012-01-31,0.31513670274776834,0.0,-0.2876812872013792,-0.3240808286649535,0.0,-0.40784697392372554,0.0,0.3400720297218845,0.3644003573204055
2012-02-29,0.3921859932884916,0.0,-0.36232045304170585,-0.3653283424686561,0.0,-0.4851279828009613,0.0,0.40891134037177834,0.41167944465105333
2012-03-31,0.5985343303723153,0.0,-0.509831494819448,-0.5267539347205694,0.0,-0.6910592188521644,0.5382738421064195,0.5908364759134473,0.0
2012-04-30,0.5155173921189773,0.0,-0.4509633855315489,-0.46100186051026876,0.0,-0.47703910433430763,0.0,0.451606108929688,0.4218808493274601
2012-05-31,0.48339932775159516,0.0,-0.4709654029351538,-0.48736566519979707,0.0,-0.41132593638530096,0.0,0.4370720896303158,0.4491855871383409
2012-06-30,0.5032069686875872,0.0,-0.48368759230098957,-0.5107648837694863,0.0,-0.4394158215952104,0.0,0.4414684849295238,0.4891928440485753
2012-07-31,0.4861529241131921,0.0,-0.475297807704857,-0.47489395488309094,0.0,-0.530078613542722,0.0,0.454746556034416,0.5393708959830619
2012-08-31,0.4963037317644843,0.0,-0.4482648009380031,-0.44327312014791576,0.0,-0.5943592379030792,0.0,0.4631939791093665,0.5263994481151472
2012-09-30,0.5398475119072549,0.0,-0.49079945026888666,-0.4844332918524079,0.0,-0.6501681751098047,0.0,0.525880456812341,0.5596729485115033
2012-10-31,0.5698810153263644,0.0,-0.5296572025941383,-0.48106278501052896,0.0,-0.6738149555841064,0.5933040628866584,0.5213498649757512,0.0
2012-11-30,0.6990293823174223,0.0,-0.6619986181769424,-0.583101002238217,0.0,-0.6985720510075012,0.6133810344137222,0.6312612546915163,0.0
2012-12-31,0.8339363843542064,0.0,-0.809180149922147,-0.7471569518215817,0.0,-0.7343235925432257,0.7404900888341202,0.7162342210986276,0.0
2013-01-31,0.8219823536353998,0.0,-0.7791751782582558,-0.7546692292182253,0.0,-0.6324221239280717,0.7371785936403946,0.607105584128758,0.0
2013-02-28,0.7120974072155193,0.0,-0.691031061396836,-0.7069013156754482,0.0,-0.48525070401738235,0.6374406996948538,0.5336449741792934,0.0
2013-03-31,0.6836220073189595,0.0,-0.7140235297710523,-0.636089516425535,0.0,-0.43494447843366446,0.5829288098390589,0.5185067074722333,0.0
2013-04-30,0.771670716672015,0.0,-0.7582752012906653,-0.686312312815134,0.0,-0.5031481413464014,0.5758678921846321,0.6001970465955536,0.0
2013-05-31,0.5979306655716949,0.0,-0.6143234425164821,-0.5940296532426095,0.0,-0.35290006843579386,0.4859152614078939,0.47740723721529676,0.0
2013-06-30,0.47859990896488147,0.0,-0.4614612065066852,-0.5305461523592458,0.0,-0.33434738546531234,0.4559590158832676,0.3917958194830944,0.0
2013-07-31,0.3558069994528557,0.0,-0.3586500070176417,-0.41093232373349664,0.0,-0.2577344499354169,0.3409792256428632,0.3305305555908365,0.0
2013-08-31,0.32460769163303255,0.0,-0.3276433502084286,-0.3900121311731956,0.0,-0.25736396410790424,0.32520293923063254,0.3252088146258633,0.0
2013-09-30,0.33711927642430317,0.0,-0.3478385267659357,-0.39010697270687816,0.0,-0.2373152006476003,0.3000007693265791,0.338140654369532,0.0
2013-10-31,0.35341254611147677,0.0,-0.36276255326935725,-0.4273126437552934,0.0,-0.2781998379675543,0.35420661378984863,0.3606558750908796,0.0
2013-11-30,0.41954540851123395,0.0,-0.3770740809689496,-0.45776792328905347,0.0,-0.3095740991296305,0.3491691731116559,0.37570152176474375,0.0
2013-12-31,0.5039561701115328,0.0,-0.4745543676558377,-0.5375322195112562,0.0,-0.4018056445975204,0.4184564827709983,0.4914795788820832,0.0
2014-01-31,0.5242681901105726,0.0,-0.508439094106587,-0.5851007592946291,0.0,-0.4476242554487889,0.4841027261353255,0.5327931926041072,0.0
2014-02-28,0.43785813694046694,0.0,-0.43553985203844825,-0.5419452567391577,0.0,-0.37737368296322066,0.4366970744101373,0.48030358039022264,0.0
2014-03-31,0.40704554752286404,0.0,-0.39834343511019954,-0.5103077318075409,0.0,-0.36711465575831737,0.41912817229478555,0.4495921028584082,0.0
2014-04-30,0.41307974420390553,0.0,-0.42335696556819086,-0.5191312497550794,0.0,-0.3769304115121564,0.4507928786954006,0.4555460039361204,0.0
2014-05-31,0.6396231823766126,0.0,-0.6648092549914609,-0.7394674688877225,0.0,-0.5812376757524716,0.6618791736617421,0.6840120435933005,0.0
2014-06-30,0.7420506545476334,0.0,-0.7820386167093979,-0.8706682735956962,0.0,-0.6445137570578654,0.8223886074689727,0.7327813853463533,0.0
2014-07-31,0.799921880522159,0.0,-0.7459670351433074,-0.8516529109655906,0.0,-0.7259836190165623,0.8380737730844882,0.6856079115188135,0.0
2014-08-31,0.8082129211540778,0.0,-0.7473554545448217,-0.8713042388826295,0.0,-0.7853881061406492,0.9078960866130502,0.6879387918009726,0.0
2014-09-30,0.9419603437932365,0.0,-0.8282350345327155,-0.9398838529385578,0.0,-0.8295833600713124,0.8994511419760622,0.7562907617732868,0.0
2014-10-31,0.6487954692664112,0.0,-0.5824197622114794,-0.6417162570160762,0.0,-0.673491233121867,0.6676974907496398,0.5811342923333713,0.0
2014-11-30,0.597473704331887,0.0,-0.5844413181800059,-0.6028715462103678,0.0,-0.5262705605915918,0.6223013951438232,0.4938083255062554,0.0
2014-12-31,0.5223216156910742,0.0,-0.5331831474207315,-0.549406086701968,0.0,-0.4661874358840097,0.5631485489394825,0.4633065053761524,0.0
2015-01-31,0.5356429122126966,0.0,-0.5264012585279227,-0.5315707152674355,0.0,-0.38828181420161784,0.45528059972004664,0.45533027606423293,0.0
2015-02-28,0.2677998449580908,0.0,-0.1226713136381523,-0.27341335941512734,0.0,-0.27341335941512734,0.18115517135199133,0.22054301615832483,0.0
2015-03-31,0.26766791301564063,0.0,-0.12355149162854062,-0.27280795983191564,0.0,-0.27280795983191564,0.1737305785307318,0.2277689197459994,0.0
2015-04-30,0.255713641750468,0.0,-0.12457352785041802,0.0,0.0,-0.27686491861223045,0.192082353073848,0.23050737025056298,-0.27686491861223045
2015-05-31,0.48732880863476336,0.0,-0.45910250483339393,-0.45327415624787415,0.0,0.0,0.40409312734363695,0.4792657710116337,-0.4583110459087658
2015-06-30,0.42295992814500066,0.0,-0.3502056335149686,0.0,0.0,-0.48738731162091586,0.377117467264504,0.4183495174194122,-0.38083396769303257
2015-07-31,0.42597434838767717,0.0,-0.3955557385211944,-0.39534671253385845,0.0,0.0,0.33433793602483575,0.41526813242944544,-0.38467796578690555
2015-08-31,0.4989188041091021,0.0,-0.4555686873196922,-0.40396803300245043,0.0,0.0,0.3693309182865244,0.4230634571761635,-0.43177645924964747
2015-09-30,0.32978413019027364,0.0,-0.27543678744791295,0.0,0.0,-0.30293785812035895,0.277106160091147,0.2457337803972969,-0.2742494251104455
2015-10-31,0.28898767678907894,0.0,-0.27578598911314905,-0.25353113126115356,0.0,0.0,0.2710963862139674,0.22581669090969403,-0.25658363353843777
2015-11-30,0.27313365485941815,0.0,-0.25688498712670377,-0.23875516832716417,0.0,0.0,0.2470131432821182,0.21691680368948527,-0.24142344637715366
2015-12-31,0.42964917515686263,0.0,-0.37639333184031715,0.0,0.0,-0.46015754465043535,0.36700580713756953,0.3537233825240092,-0.3138274883276888
2016-01-31,0.39054413237695734,0.0,-0.3877471920774465,-0.33470483855665123,0.0,0.0,0.35763449842890244,0.3467216980048574,-0.3724482981766193
2016-02-29,0.3462993724588179,0.0,-0.3602355163448817,-0.34195968201514176,0.0,0.0,0.36740802864720956,0.35329409684925406,-0.36480629959525807
2016-03-31,0.30558010290680815,0.0,-0.3318763926022293,0.0,0.0,-0.29141597910604133,0.36474473061080886,0.30380262239377104,-0.3508350842031176
2016-04-30,0.32597690604469914,0.0,-0.3453286862772073,0.0,0.0,-0.27297147267275357,0.3733271671191218,0.28525211713179216,-0.3662560313456522
2016-05-31,0.32425839439994575,0.0,-0.3110085331574788,-0.3255316601422624,0.0,0.0,0.38288535809397944,0.2786408666402308,-0.3492444258344148
2016-06-30,0.373107873925026,0.0,-0.4498281055950422,0.0,0.0,-0.2872217742157129,0.44534853861064544,0.3527102254115014,-0.4341167581364177
2016-07-31,0.37890396740288734,0.0,-0.44951655800323476,-0.38320170373784135,0.0,0.0,0.3607487582548754,0.38413827042538035,-0.29107273434206704
2016-08-31,0.4330341421087576,0.0,-0.4818098050912185,-0.4164066434983115,0.0,0.0,0.37111417357630405,0.40037270297369404,-0.30630457006922573
2016-09-30,0.44730780878279924,0.0,-0.4879075895850637,0.0,0.0,-0.32166908994165866,0.36750731251690544,0.40493053361136283,-0.4101689753843452
2016-10-31,0.613666697771166,0.0,-0.5343020025807956,-0.6685860352895826,0.0,0.0,0.5699442365523221,0.535582625543208,-0.5163055219963181
2016-11-30,0.673769015850676,0.0,-0.6681573579598138,-0.7634499848147661,0.0,0.0,0.6272920019458835,0.6533270231408863,-0.5227806981628662
2016-12-31,0.5292242537473524,0.0,-0.6533716084918391,0.0,0.0,-0.450407280503904,0.5782409059769961,0.5259582362341064,-0.5296445069627116
2017-01-31,0.5666945244547121,0.0,-0.6634946129932686,0.0,0.0,-0.5042904529736377,0.5540854973448532,0.5379441025502242,-0.490939058382883
2017-02-28,0.6244074984087377,0.0,-0.6966254632018334,-0.5641334554072468,0.0,0.0,0.6023593780980195,0.5645697234889484,-0.5305776813866253
2017-03-31,0.6689683987092977,0.6923651574291475,-0.7208452156399423,-0.6286493013246343,0.0,0.0,0.0,0.5570448896977812,-0.5688839288716501
2017-04-30,0.5825380834803859,0.0,-0.6318792052301374,-0.5470439664664514,0.0,0.0,0.6063778544679127,0.5201666334181225,-0.5301593996698325
2017-05-31,0.545321506718665,0.0,-0.646852182631467,-0.5216821160487968,0.0,0.0,0.5356556076048641,0.5557168975306724,-0.4681597131739375
2017-06-30,0.5296130174351267,0.0,-0.5493281979153994,-0.4935207855401608,0.0,0.0,0.4774623063255877,0.5025410954945491,-0.46676743579970326
2017-07-31,0.5197574275474498,0.5624146773079072,-0.5570978610692475,-0.5284959961286744,0.0,0.0,0.0,0.4769823373181203,-0.4735605849755555
2017-08-31,0.5391328228885532,0.5514055641634981,-0.5334888961180058,-0.5427752436081276,0.0,0.0,0.0,0.5035452867360413,-0.517819534061959
2017-09-30,0.5349573745445505,0.5006724297783635,-0.5182733325076002,-0.5297684102807225,0.0,0.0,0.0,0.5201923434528684,-0.5077804049874596
2017-10-31,0.4846351082531087,0.4766487273184983,-0.46247311305313626,-0.49172623100181806,0.0,0.0,0.0,0.4454740812197519,-0.4525585727364046
2017-11-30,0.4892835935550079,0.46530228588129185,-0.4631721304356988,-0.4813972620122371,0.0,0.0,0.0,0.40974832759682633,-0.41976481458519044
2017-12-31,0.50811340419708,0.5621864638167251,-0.5337397834170062,-0.4944317804785172,0.0,0.0,0.0,0.4030283491463199,-0.44515665326460163
2018-01-31,0.5842483283155455,0.551771529166972,-0.5710273296249991,-0.5779312403173009,0.0,0.0,0.0,0.45258040507006553,-0.4396416926102832
2018-02-28,0.6847091354741639,0.6215109658547802,-0.6214281121413164,-0.692230709613244,0.0,0.0,0.0,0.5659461815202437,-0.5585074610946275
2018-03-31,0.6284714014784741,0.7059333045948651,-0.6586905032340747,-0.6993625656748949,0.0,0.0,0.0,0.5610498593325735,-0.5374014964969432
2018-04-30,0.5624484610087829,0.6518536523909578,-0.6152621800225964,0.0,0.0,-0.6277605592704304,0.0,0.5613313315408855,-0.5326107056475994
2018-05-31,0.5615376278291087,0.6408178219273313,-0.644231753607014,-0.6259127570071534,0.0,0.0,0.0,0.5334771520073476,-0.4656880911496202
2018-06-30,0.5679446216679086,0.6057540281988839,-0.6993546528304722,-0.6414186267938637,0.0,0.0,0.0,0.5746738298863682,-0.40759920012882483
2018-07-31,0.5925784826852828,0.6691320564884218,-0.7650575969982136,-0.6733563133755708,0.0,0.0,0.0,0.6509074705868024,-0.4742040993867228
2018-08-31,0.5911675149417867,0.6918757539778065,-0.7760991594599355,-0.6756937546807955,0.0,0.0,0.0,0.6571802740901967,-0.488430628869059
2018-09-30,0.6072918838437369,0.813140570259356,-0.8294684754444988,-0.674017239436631,0.0,0.0,0.0,0.6532177221727262,-0.5701644613946893
2018-10-31,0.5483791582565217,0.7252892246206163,-0.7059943862537443,-0.6452133296307809,0.0,0.0,0.0,0.5732137542148689,-0.4956744212074818
2018-11-30,0.5422770806167941,0.7137040181043556,-0.6987622197495887,-0.6288015205772987,0.0,0.0,0.0,0.5393474026172428,-0.467764761011505
2018-12-31,0.5834991771332151,0.7527317948518369,-0.6943153435130339,0.0,0.0,-0.7527293880765156,0.0,0.5455868476113774,-0.43477308800687986
2019-01-31,0.4676427937476022,0.6099662255180859,-0.6099609947507892,-0.5445952901107336,0.0,0.0,0.0,0.4472885449804405,-0.3703412793846057
2019-02-28,0.40582490835895624,0.5662511904437707,-0.5402481606025102,-0.49192025021967467,0.0,0.0,0.0,0.44355065558986434,-0.3834583435704065
2019-03-31,0.4227131652570617,0.5747415812708488,-0.48799432583339203,-0.4931447857381239,0.0,-0.4557065683431516,0.0,0.4393909333867568,0.0
2019-04-30,0.5655701626018099,0.7262706429531108,-0.619896839913912,-0.5500181133502663,0.0,-0.6457593739563602,0.0,0.5238335216656177,0.0
2019-05-31,0.6004681778738297,0.770398698877532,-0.7346090288740899,-0.5774905043154648,0.0,-0.6138924986476217,0.0,0.5551251550858148,0.0
2019-06-30,0.6471855620884159,0.8284937410646811,-0.7366391065284659,-0.7529838727948762,0.0,-0.5816064212630708,0.0,0.5955500974333157,0.0
2019-07-31,0.0,0.8781183718577776,-0.6587364721859617,-0.7898799975524867,0.0,-0.7466725775422749,0.621912486882004,0.6952581885409419,0.0
2019-08-31,0.0,0.9549160211363349,-0.7533214463452517,-0.9549043210073069,0.0,0.0,0.6747808039297043,0.7575610751431734,-0.6790321328566544
2019-09-30,0.0,0.8583291275804599,-0.642535858433516,-0.8583166315389408,0.0,-0.6449369723007542,0.6071481402555458,0.6803121944372057,0.0
2019-10-31,0.0,0.8294071093229742,-0.6656843895271355,-0.8054249197039586,0.0,-0.6023797429655936,0.6020028949505719,0.6420790479231419,0.0
2019-11-30,0.0,0.856083939183745,-0.6798734466366395,-0.8240282927843606,0.0,-0.6362994887341553,0.6404271003239498,0.6436901886474604,0.0
2019-12-31,0.0,0.9471043915999814,-0.7558057514104696,-0.8071819090964546,0.0,-0.8047393814551953,0.7433282172557966,0.6772944331063417,0.0
2020-01-31,0.0,1.0134463797203777,-0.7612474822069694,-0.9161987500051526,0.0,-0.8561482234415231,0.7735770280984186,0.7465710478348491,0.0
2020-02-29,0.0,0.8908847971052385,-0.6686288519757951,-0.8061234197233337,0.0,-0.7524341836935621,0.688054860244293,0.6482467980431592,0.0
2020-03-31,0.0,0.6457149129152184,-0.5886962550290514,-0.6008446371221592,0.0,-0.4247158885235808,0.46725237364525024,0.5012894941143229,0.0
2020-04-30,0.23898673545828047,0.0,-0.2450256359366268,-0.23575482879443493,0.0,-0.154029520321609,0.14189766941661702,0.2539255801777732,0.0
2020-05-31,0.15886281856694756,0.23149436328409986,-0.22122558012340912,-0.2097127760665275,0.0,-0.14779649106399392,0.0,0.18837766540288317,0.0
2020-06-30,0.1591492927634237,0.2271135056211006,-0.21553766906763425,-0.20079752059041941,0.0,-0.15144821936043218,0.0,0.18152061063396138,0.0
2020-07-31,0.0,0.365881349413405,-0.3000994941582489,-0.2787157968616941,0.0,-0.3358817391357055,0.24606718555133195,0.3027484951909117,0.0
2020-08-31,0.3430532075391659,0.4560771628873246,-0.4006731820794963,-0.3596421474283058,0.0,-0.3798750903644267,0.0,0.3410600494457382,0.0
2020-09-30,0.4434444300951975,0.5999741089571514,-0.4934627174156136,-0.49220870405739214,0.0,-0.5142561170617223,0.0,0.45650899948237916,0.0
2020-10-31,0.6340141775291562,0.0,-0.54388724155976,-0.5643772482629964,0.0,-0.5954949496634543,0.44121860890272213,0.6285266530543324,0.0
2020-11-30,0.0,0.6299708944365205,-0.4919955607980584,-0.5233315702922249,0.0,-0.5595650345779566,0.3801734849520693,0.5647477862796498,0.0
2020-12-31,0.0,0.520755097768212,-0.4762422526126456,-0.515272470407471,0.0,0.0,0.29320232671533913,0.4879047827334315,-0.310347484196866
2021-01-31,0.0,0.5679403922109976,-0.5123582005838225,-0.5408088589332539,0.0,0.0,0.32899665093637703,0.522892754907956,-0.36666273853825404
2021-02-28,0.0,0.5952860637037123,-0.5489475816516102,-0.5762706366777994,0.0,0.0,0.3806013838782767,0.5123141982385658,-0.36298342749114526
2021-03-31,0.0,0.7047569166008452,-0.6771919609433343,-0.6747162226706417,0.0,0.0,0.4792630009010306,0.5778535517516046,-0.40996528563950446
2021-04-30,0.0,0.6637102705464045,-0.4647067736843966,-0.5308428658651783,0.0,-0.6637000720153982,0.47236116938851364,0.5231782716300546,0.0
2021-05-31,0.0,0.6651849424061916,-0.5520182300087905,-0.6518490320595787,0.0,0.0,0.4834008023882993,0.514342011016854,-0.45906049374297586
2021-06-30,0.0,0.8885956905527188,-0.7838960500656984,-0.8667606237447713,0.8141901522756585,0.0,0.0,0.5186963962455674,-0.5708255652634755
2021-07-31,0.0,0.9003918596151052,-0.8639454848031279,-0.904390753147138,0.8643291561006806,0.0,0.0,0.5699083573555517,-0.5662931351210715
2021-08-31,0.0,0.743466963354251,-0.7209003551429957,-0.8463295650615724,0.8207075754250711,0.0,0.0,0.5516487626775932,-0.548593381252347
2021-09-30,0.0,0.7800449487357933,-0.5606166514824585,-0.7310321317396985,0.0,-0.7108742996477941,0.5367730210615435,0.6857051130726142,0.0
2021-10-31,0.0,0.762057600739365,-0.652413092507936,-0.7964823498072942,0.0,0.0,0.561176312627487,0.6679601333067215,-0.5422986043583433
2021-11-30,0.0,0.8123766430048525,-0.6919430088436233,-0.814895326133305,0.0,0.0,0.5613429536922397,0.6635111620297722,-0.5303924237499364
2021-12-31,0.0,0.6597845174299378,-0.581991989456807,-0.642191860438961,0.0,0.0,0.44556939656022576,0.544090714230923,-0.4252607783253184
2022-01-31,0.0,0.0,-0.5439388871370452,-0.5441137238515072,0.650607667902864,-0.5384535813537683,0.4123804500152859,0.5635180744241711,0.0
2022-02-28,0.0,0.0,-0.5914449383027631,-0.6187425610589946,0.644659104532407,0.0,0.39833083638113886,0.5686334565183961,-0.40143589807018426
2022-03-31,0.0,0.8503993572175875,-0.8290319277073952,-0.8090395310447356,0.0,0.0,0.5350863686103488,0.7405126104088259,-0.4879268774846314
2022-04-30,0.0,0.0,-0.6499849779005394,-0.5208938970642304,0.719010102371704,-0.6266269938522078,0.4520932401006895,0.6264025263445843,0.0
2022-05-31,0.0,0.6199912289407828,-0.6199890303408405,-0.4842434033448311,0.574586251885107,-0.4457377052291646,0.35539265808894616,0.0,0.0
2022-06-30,0.0,0.5294529762299026,-0.5034965821489292,-0.4245145121886422,0.42489643126319854,-0.39561073078073306,0.0,0.3692724176252034,0.0
2022-07-31,0.3613171203097266,0.522369345380466,-0.4350016267981751,-0.4822668350858044,0.0,-0.388635115784137,0.0,0.4222171119779241,0.0
2022-08-31,0.3880081076101982,0.5680011668134807,-0.4926216562718448,-0.4815127484106212,0.0,-0.4458601999422987,0.0,0.4639853302010859,0.0
2022-09-30,0.43723249341032383,0.6269685061355345,-0.5611252261955139,-0.554629343411559,0.0,-0.4516553408487323,0.0,0.5032089109099472,0.0
2022-10-31,0.0,0.6718031148636564,-0.6351766004779588,-0.5472085113806953,0.0,-0.49709248080280705,0.47621583312869004,0.5314586446691143,0.0
2022-11-30,0.0,0.5446379706717415,-0.49658524426986245,-0.41045698410661124,0.3974543435771998,-0.45453184679771647,0.0,0.41948176092524914,0.0
2022-12-31,0.0,0.5358495771487677,-0.46419668324598845,-0.4419876772129087,0.0,-0.4334183319363844,0.3754320091747836,0.42832110607173024,0.0
2023-01-31,0.0,0.6523206457048122,-0.6167530982085269,-0.6223414677467565,0.4650018065162492,-0.3916852170612483,0.0,0.51345733079547,0.0
2023-02-28,0.0,0.6159054944569832,-0.5831252569710966,-0.6159044883137565,0.4675301482781352,-0.34072368956933896,0.0,0.4563177921190736,0.0
2023-03-31,0.0,0.7294349152592446,-0.7061556426603876,-0.7294330603689728,0.5755711067626302,-0.38798987147634956,0.0,0.5185725524838348,0.0
2023-04-30,0.0,0.767317331004732,-0.7448943856256119,0.0,0.602038685000545,-0.5968010217901112,0.0,0.5489140908898787,-0.5765746994794323
2023-05-31,0.0,0.7637498671904429,-0.6433227256411065,-0.7128689230465282,0.608448932770174,-0.5531622988571495,0.0,0.5371551475841674,0.0
2023-06-30,0.0,0.6444840389490808,-0.5379204928275855,-0.6267752489241882,0.5786598545476556,-0.44650460558054783,0.0,0.3880564538355853,0.0
2023-07-31,0.0,0.6925648257204634,-0.5905622126820911,-0.6431593061396367,0.6310079698219081,-0.4976849698032086,0.0,0.4078336930825648,0.0
2023-08-31,0.0,0.7913844184251645,-0.7692208482512846,0.0,0.7123681438682465,-0.685356529947007,0.0,0.4746866624951636,-0.5238618465902831
2023-09-30,0.0,0.8699966913614618,-0.8699867066818877,0.0,0.7554222201261783,-0.7579843584814515,0.0,0.5495443201419173,-0.5469921664662185
2023-10-31,0.0,0.973186160029999,-0.8306259952891482,-0.8982854938535084,0.8395845495500508,-0.7040286503750167,0.0,0.6201694299376235,0.0
2023-11-30,0.0,1.0836255487948154,-0.9674543712783278,-0.9060549766090593,0.9034966582048038,-0.8355369072456392,0.0,0.7219240481334067,0.0
2023-12-31,0.0,0.9889822549393396,-0.9889723071273913,0.0,0.8181452633477467,-0.8709222314112228,0.0,0.6652987886408297,-0.6125317683893021
2024-01-31,0.0,0.871710468208074,-0.8717070684092723,0.0,0.7088290865613924,-0.6954639362595805,0.0,0.5987061854519137,-0.6120747355525271
2024-02-29,0.0,0.8794701168825333,-0.8218977266514269,-0.8137549526172899,0.7092196347424031,-0.5629943292032563,0.0,0.6099572568470366,0.0
2024-03-31,0.0,0.9419192474182414,-0.8956909667944021,0.0,0.8069848229970622,-0.761362480070821,0.0,0.6155000487326587,-0.7073506722827391
2024-04-30,0.0,1.0825378049992123,-1.0502372388923482,0.0,1.0210185076184128,-0.9388056998753908,0.0,0.6741780732081419,-0.7886914470580282
2024-05-31,0.0,1.192941655406291,-1.1915670550815205,0.0,1.069417630921343,-1.018883676746124,0.0,0.7199901914507135,-0.7718987459507031
2024-06-30,0.0,1.0176714486276746,-1.0176733655335828,0.0,0.8943166546275474,-0.8166624976576963,0.0,0.6321834465254418,-0.7098356865893846
2024-07-31,0.0,0.9245378521571149,-0.9245385131659422,0.0,0.8336568144245929,-0.7350999232340795,0.0,0.5531399574285283,-0.651696187610215
2024-08-31,0.0,0.0,-0.8313770318720933,0.0,0.8313899321753637,-0.6256506834353782,0.5539390559263205,0.6931052184461576,-0.6214064912403705
2024-09-30,0.0,0.0,-0.5580576451954115,0.0,0.567405119894941,-0.37498581338416964,0.39047261717151915,0.46062261677046407,-0.48545689525734326
2024-10-31,0.0,0.0,-0.4974570014338498,0.0,0.5094588701512215,-0.3099340860565278,0.3616861139708942,0.40248801556004454,-0.46624191219178274
2024-11-30,0.0,0.0,-0.694559436020892,0.0,0.6945596781113014,-0.4367156108543097,0.5212317273344788,0.5205942299611129,-0.6051105885316914
2024-12-31,0.6293053948045857,0.0,-0.7698379053136573,0.0,0.7485750927156937,-0.5003885856182358,0.5467052028578204,0.0,-0.6543591994462066
2025-01-31,0.7546794514460851,0.0,-0.9730217341628044,0.0,0.9647535251338782,-0.687033200275006,0.7131116161226404,0.0,-0.772489658264793
2025-02-28,0.8256492394676485,0.0,-0.9859281216407041,0.0,0.8408022969762793,-0.7127179476761466,0.7983637902390075,0.0,-0.7661692573660842
2025-03-31,0.8367300887387878,0.0,-1.0151696784000512,0.0,0.8665761978797725,-0.7448321704577288,0.8346111958318218,0.0,-0.7779156335926021
2025-04-30,0.6995319906791593,0.0,-0.8447866301128313,0.0,0.7556382842986841,-0.7072845273746112,0.6567760003855906,0.0,-0.5598751178759913
2025-05-31,0.2808429905814956,0.0,-0.3048075250387579,0.0,0.3810965835185864,-0.3526086365662562,0.29078703904983627,0.0,-0.2953104515449041
2025-06-30,0.2713362624885239,0.0,-0.27454531042893865,-0.36396896373754806,0.3721885573419625,-0.2919411980585739,0.2869306523945742,0.0,0.0
2025-07-31,0.34621726685630394,0.0,-0.3436089528099973,-0.4711017091704924,0.47309400838296317,-0.36801908088294955,0.3634184676241722,0.0,0.0
2025-08-31,0.7032990171294635,0.0,-0.770650164756208,-0.828098325157825,0.8756207123102199,-0.6735377112038187,0.693366471678168,0.0,0.0
2025-09-30,0.8044861595911995,0.0,-0.8918769442021122,-0.8589010223221705,0.9351317172685958,-0.7445035471299382,0.7556636367944254,0.0,0.0
2025-10-31,0.8994109253925694,0.0,-1.0046576931834925,0.0,0.971255118137177,-0.8603145322770189,0.7677106377580488,0.0,-0.7734044558272841
2025-11-30,0.6773166875181605,0.0,-0.7585730764048976,0.0,0.7555803799616445,-0.6129820086117339,0.6017053054664966,0.0,-0.6630472879296699
2025-12-31,0.6628017893318745,0.0,-0.7492383696561273,0.0,0.7758278969662838,-0.5756666727081411,0.5966504388613595,0.0,-0.7103750827952494
2026-01-31,0.7170871712467131,0.0,-0.811318472768982,0.0,0.8113436357880874,-0.6343306849172053,0.6912359401714038,0.0,-0.774017589520017
2026-02-28,0.9734193640997173,0.0,-0.9526518433012406,0.0,1.082426894960759,-0.9362926891863915,0.8555684335338849,0.0,-1.022470160106729
2026-03-31,0.6997628274114952,0.0,-0.7468214161659157,0.0,0.8896820280997801,-0.7249953831197431,0.6419840500286723,0.0,-0.7596121062542891
2026-04-30,0.6217345580608062,0.0,-0.7189544835649725,0.0,0.8177309769136771,-0.7506343780969436,0.6048545769827083,0.0,-0.5747312502952758
2026-05-31,0.6353923118146945,0.0,-0.8555226426021064,0.0,0.8740874106342404,-0.7507857137120088,0.675733594812704,0.0,-0.5789049609475234
2026-06-30,0.7652985569707328,0.0,-1.0377195467923999,0.0,0.9991066677547576,-0.9098283099205986,0.829890850427781,0.0,-0.6467482184402726
